Cufon.registerFont({"w":1139,"face":{"font-family":"Arial","font-weight":400,"font-stretch":"normal","units-per-em":"2048","panose-1":"2 11 6 4 2 2 2 2 2 4","ascent":"1638","descent":"-410","x-height":"24","bbox":"-94 -1601 2005 432.648","underline-thickness":"150","underline-position":"-142","unicode-range":"U+0020-U+007E"},"glyphs":{" ":{"w":569,"k":{"Y":37,"T":37,"A":113}},"\u00a0":{"w":569},"!":{"d":"231,-364r-55,-777r0,-325r223,0r0,325r-52,777r-116,0xm184,0r0,-205r207,0r0,205r-207,0","w":569},"\"":{"d":"144,-947r-50,-279r0,-240r205,0r0,240r-45,279r-110,0xm475,-947r-49,-279r0,-240r205,0r0,240r-48,279r-108,0","w":727},"#":{"d":"103,25r87,-426r-169,0r0,-149r199,0r74,-363r-273,0r0,-149r303,0r87,-429r150,0r-87,429r315,0r87,-429r151,0r-87,429r173,0r0,149r-203,0r-75,363r278,0r0,149r-308,0r-87,426r-150,0r86,-426r-314,0r-87,426r-150,0xm370,-550r314,0r75,-363r-315,0"},"$":{"d":"1014,-575v110,303,-103,604,-398,604r0,182r-106,0r0,-180v-271,-26,-409,-168,-437,-438r181,-34v21,185,107,296,256,320r0,-573v-134,-28,-300,-100,-360,-219v-29,-58,-46,-121,-46,-193v0,-236,153,-392,406,-409r0,-86r106,0r0,86v228,19,360,153,391,361r-186,28v-20,-136,-81,-210,-205,-237r0,519v171,42,227,60,317,143v37,34,63,77,81,126xm510,-1365v-127,16,-226,111,-226,245v0,152,87,211,226,253r0,-498xm616,-121v136,-15,247,-132,242,-284v-6,-172,-82,-207,-242,-264r0,548"},"%":{"d":"429,-716v-202,0,-310,-163,-310,-398v0,-201,106,-381,308,-377v203,4,319,159,319,388v0,223,-120,387,-317,387xm589,-1110v0,-155,-39,-257,-157,-257v-122,0,-156,106,-156,271v0,154,39,256,156,256v123,0,157,-105,157,-270xm433,54r802,-1545r146,0r-799,1545r-149,0xm1377,54v-201,0,-310,-164,-310,-398v0,-202,105,-382,309,-377v203,4,319,159,319,388v0,223,-120,387,-318,387xm1538,-340v0,-155,-39,-257,-157,-257v-123,0,-157,105,-157,271v0,153,40,256,156,256v124,0,158,-105,158,-270","w":1821},"&":{"d":"636,-1491v187,0,341,137,341,313v0,139,-92,258,-277,357r263,335v30,-59,53,-127,70,-204r187,40v-32,128,-75,233,-130,316v67,89,144,164,229,225r-121,143v-73,-47,-148,-116,-225,-207v-104,115,-228,191,-421,198v-253,9,-462,-189,-464,-429v0,-91,30,-173,88,-246v58,-73,145,-137,261,-192v-99,-121,-158,-171,-165,-322v-8,-181,171,-327,364,-327xm627,-1343v-118,0,-210,117,-153,233v29,60,90,121,133,173v119,-76,177,-101,186,-236v6,-96,-72,-170,-166,-170xm860,-315r-330,-409v-97,58,-163,112,-197,162v-78,116,-63,218,20,332v80,111,241,124,369,46v57,-35,103,-78,138,-131","w":1366},"'":{"d":"136,-947r-46,-274r0,-245r205,0r0,245r-48,274r-111,0","w":391},"(":{"d":"124,-531v5,-419,153,-682,355,-960r129,0v-146,253,-198,327,-256,585v-118,522,-5,898,256,1337r-129,0v-179,-228,-359,-574,-355,-962","w":682},")":{"d":"608,-531v5,386,-178,735,-355,962r-129,0v199,-320,299,-640,299,-961v-1,-246,-56,-478,-138,-661v-26,-60,-80,-160,-161,-300r129,0v203,280,349,539,355,960","w":682},"*":{"d":"64,-1197r46,-142v106,37,183,70,231,97v-13,-121,-19,-204,-20,-249r145,0v-2,66,-10,149,-23,248v69,-35,147,-67,236,-96r46,142v-85,28,-168,47,-249,56v41,35,98,98,172,189r-120,85v-39,-53,-84,-124,-137,-215v-49,94,-93,166,-130,215r-118,-85v77,-95,133,-158,166,-189v-86,-17,-168,-35,-245,-56","w":797},"+":{"d":"513,-237r0,-402r-399,0r0,-168r399,0r0,-399r170,0r0,399r399,0r0,168r-399,0r0,402r-170,0","w":1196},",":{"d":"182,0r0,-205r205,0v-3,139,14,301,-40,387v-28,45,-69,83,-127,108r-50,-77v80,-37,110,-96,114,-213r-102,0","w":569},"-":{"d":"65,-440r0,-181r553,0r0,181r-553,0","w":682},"\u00ad":{"d":"65,-440r0,-181r553,0r0,181r-553,0","w":682},".":{"d":"186,0r0,-205r205,0r0,205r-205,0","w":569},"\/":{"d":"0,25r425,-1516r144,0r-424,1516r-145,0","w":569},"0":{"d":"85,-723v0,-316,57,-526,213,-663v112,-98,331,-113,472,-38v126,68,196,193,238,354v49,187,40,597,-20,764v-69,190,-188,331,-425,331v-141,0,-252,-51,-333,-152v-97,-122,-145,-321,-145,-596xm270,-723v0,241,29,400,84,481v107,158,311,158,418,-1v55,-81,84,-240,84,-480v0,-241,-30,-400,-84,-481v-99,-150,-309,-160,-409,-14v-61,90,-93,254,-93,495"},"1":{"d":"223,-1104v172,-78,346,-219,424,-368r116,0r0,1472r-180,0r0,-1147v-78,77,-249,176,-360,217r0,-174","k":{"1":152}},"2":{"d":"572,-1472v324,-8,547,272,421,580v-24,57,-66,114,-119,179v-67,82,-406,361,-486,443v-31,32,-56,64,-76,97r719,0r0,173r-969,0v3,-145,63,-224,140,-320v53,-65,132,-138,235,-222v159,-131,267,-234,323,-310v56,-76,84,-149,84,-217v1,-146,-122,-254,-276,-254v-175,0,-289,116,-287,294r-185,-19v22,-268,191,-417,476,-424"},"3":{"d":"1046,-433v0,259,-225,459,-494,459v-257,0,-447,-177,-466,-413r180,-24v34,174,112,282,287,288v166,6,302,-138,302,-306v0,-163,-124,-288,-287,-285v-34,0,-76,7,-127,20r20,-158v171,13,328,-72,328,-243v0,-132,-104,-232,-240,-229v-159,4,-244,108,-265,264r-180,-32v37,-224,194,-380,441,-380v241,0,429,147,429,381v0,148,-86,246,-202,297v165,36,274,165,274,361"},"4":{"d":"662,0r0,-351r-636,0r0,-165r669,-950r147,0r0,950r198,0r0,165r-198,0r0,351r-180,0xm662,-516r0,-661r-459,661r459,0"},"5":{"d":"1057,-497v0,291,-212,522,-501,522v-265,0,-450,-167,-471,-409r189,-16v22,163,118,275,282,277v182,2,310,-160,310,-358v0,-197,-123,-332,-313,-332v-122,0,-218,64,-267,142r-169,-22r142,-753r729,0r0,172r-585,0r-79,394v88,-61,180,-92,277,-92v257,0,456,209,456,475"},"6":{"d":"1045,-476v-9,286,-171,501,-459,501v-150,0,-272,-55,-367,-165v-95,-110,-142,-293,-142,-546v0,-283,52,-489,157,-618v91,-112,214,-168,369,-168v237,-1,391,148,416,365r-179,14v-27,-145,-109,-231,-248,-231v-155,0,-232,106,-285,229v-34,79,-50,192,-51,339v73,-115,192,-192,356,-195v246,-4,441,214,433,475xm576,-792v-167,-1,-296,140,-292,317v5,191,113,352,299,352v166,0,278,-154,278,-342v0,-187,-112,-326,-285,-327"},"7":{"d":"302,0v24,-494,261,-988,513,-1274r-718,0r0,-173r949,0r0,140v-192,204,-400,583,-490,904v-34,123,-59,257,-69,403r-185,0"},"8":{"d":"83,-424v1,-201,111,-329,279,-371v-133,-48,-218,-137,-220,-299v-3,-221,184,-378,421,-378v238,0,428,161,426,383v-2,156,-88,247,-216,294v164,52,274,176,276,376v3,257,-211,444,-483,444v-274,0,-484,-188,-483,-449xm565,-1324v-130,0,-239,100,-239,224v0,138,102,236,241,236v132,0,237,-99,237,-226v0,-130,-107,-234,-239,-234xm562,-717v-165,0,-297,129,-294,294v3,175,123,297,300,300v168,3,297,-126,297,-294v0,-170,-133,-300,-303,-300"},"9":{"d":"85,-977v0,-282,192,-498,461,-495v215,2,369,130,442,296v81,183,73,671,0,860v-76,196,-220,339,-464,341v-237,2,-387,-145,-412,-364r173,-16v25,144,93,232,243,232v198,0,271,-135,315,-311v21,-85,30,-163,26,-256v-64,104,-192,192,-350,193v-251,1,-434,-212,-434,-480xm563,-656v176,-1,286,-139,286,-330v0,-187,-114,-337,-281,-337v-170,0,-298,164,-298,352v0,177,125,316,293,315"},":":{"d":"185,-857r0,-205r205,0r0,205r-205,0xm185,0r0,-205r205,0r0,205r-205,0","w":569},";":{"d":"182,-857r0,-205r205,0r0,205r-205,0xm182,0r0,-205r205,0v-3,139,14,301,-40,387v-28,45,-69,83,-127,108r-50,-77v80,-37,110,-96,114,-213r-102,0","w":569},"\u037e":{"d":"182,-857r0,-205r205,0r0,205r-205,0xm182,0r0,-205r205,0v-3,139,14,301,-40,387v-28,45,-69,83,-127,108r-50,-77v80,-37,110,-96,114,-213r-102,0","w":569},"<":{"d":"112,-641r0,-168r971,-410r0,179r-770,316r770,319r0,179","w":1196},"=":{"d":"1082,-862r-968,0r0,-168r968,0r0,168xm1082,-417r-968,0r0,-168r968,0r0,168","w":1196},">":{"d":"1083,-641r-971,415r0,-179r769,-319r-769,-316r0,-179r971,410r0,168","w":1196},"?":{"d":"565,-1491v325,-10,578,280,426,577v-28,55,-89,119,-176,197v-128,116,-165,136,-170,356r-173,0v-10,-262,79,-343,230,-479v97,-87,142,-112,149,-239v7,-141,-135,-269,-283,-264v-178,6,-267,119,-293,297r-185,-22v29,-261,194,-414,475,-423xm461,0r0,-205r205,0r0,205r-205,0"},"@":{"d":"1354,4v-125,0,-185,-42,-193,-167v-72,83,-174,166,-307,166v-229,0,-360,-207,-362,-449v-2,-224,140,-467,284,-558v82,-51,159,-80,235,-80v142,0,240,80,302,184r34,-155r179,0r-144,671v-20,93,-30,145,-30,155v-1,36,33,66,70,66v35,0,81,-21,139,-61v136,-92,247,-281,247,-492v0,-394,-312,-631,-715,-631v-506,0,-828,360,-834,862v-6,514,350,762,861,768v327,4,576,-125,704,-302r181,0v-82,160,-274,316,-470,387v-222,81,-582,80,-821,6v-361,-112,-603,-395,-603,-843v0,-390,200,-721,447,-880v257,-165,700,-193,990,-43v222,115,408,360,408,679v0,193,-68,365,-204,515v-121,135,-254,202,-398,202xm1256,-649v9,-209,-173,-354,-352,-253v-129,73,-219,270,-227,468v-8,203,152,357,332,256v139,-78,238,-257,247,-471","w":2079},"A":{"d":"-3,0r563,-1466r209,0r600,1466r-221,0r-171,-444r-613,0r-161,444r-206,0xm420,-602r497,0r-153,-406v-47,-123,-81,-225,-104,-304v-51,254,-160,480,-240,710","w":1366,"k":{"y":37,"w":37,"v":37,"Y":152,"W":76,"V":152,"T":152," ":113}},"B":{"d":"981,-780v160,45,276,166,276,355v0,305,-215,425,-548,425r-559,0r0,-1466r550,0v217,0,346,53,428,182v39,61,58,126,58,193v0,150,-88,256,-205,311xm344,-850v271,-18,651,83,651,-218v0,-101,-53,-180,-135,-204v-106,-31,-360,-18,-516,-21r0,443xm344,-173r365,0v126,1,174,-10,244,-47v97,-50,140,-242,61,-348v-68,-91,-160,-109,-331,-109r-339,0r0,504","w":1366},"C":{"d":"775,-141v242,0,385,-152,429,-373r194,49v-71,291,-272,490,-607,490v-328,0,-510,-141,-611,-376v-52,-122,-78,-253,-78,-393v1,-452,256,-747,692,-747v310,0,508,174,579,427r-191,45v-61,-191,-167,-303,-392,-306v-338,-4,-488,250,-488,580v0,246,69,444,224,535v77,46,160,69,249,69","w":1479},"D":{"d":"158,0r0,-1466v243,5,570,-23,766,21v302,68,444,334,446,704v2,301,-99,524,-272,643v-99,68,-240,98,-411,98r-529,0xm665,-173v389,13,496,-206,505,-571v6,-271,-91,-448,-259,-519v-112,-47,-385,-27,-559,-30r0,1120r313,0","w":1479},"E":{"d":"162,0r0,-1466r1060,0r0,173r-866,0r0,449r811,0r0,172r-811,0r0,499r900,0r0,173r-1094,0","w":1366},"F":{"d":"168,0r0,-1466r989,0r0,173r-795,0r0,454r688,0r0,173r-688,0r0,666r-194,0","w":1251,"k":{"A":113,".":227,",":227}},"G":{"d":"847,-150v159,4,347,-80,428,-152r0,-273r-431,0r0,-172r621,-1r0,544v-164,130,-349,229,-607,229v-458,0,-749,-290,-749,-751v0,-455,265,-771,734,-765v335,5,536,151,600,435r-175,48v-52,-206,-181,-317,-424,-317v-366,0,-528,239,-535,587v-7,369,195,578,538,588","w":1593},"H":{"d":"164,0r0,-1466r194,0r0,602r762,0r0,-602r194,0r0,1466r-194,0r0,-691r-762,0r0,691r-194,0","w":1479},"I":{"d":"191,0r0,-1466r194,0r0,1466r-194,0","w":569},"J":{"d":"865,-467v8,324,-119,492,-412,492v-267,0,-402,-161,-394,-441r175,-24v8,191,54,292,218,292v172,0,219,-104,219,-308r0,-1010r194,0r0,999","w":1024},"K":{"d":"150,0r0,-1466r194,0r0,727r728,-727r263,0r-615,594r642,872r-256,0r-522,-742r-240,234r0,508r-194,0","w":1366},"L":{"d":"150,0r0,-1466r194,0r0,1293r722,0r0,173r-916,0","k":{"y":76,"Y":152,"W":152,"V":152,"T":152," ":76}},"M":{"d":"152,0r0,-1466r292,0r347,1038r70,217r78,-235r351,-1020r261,0r0,1466r-187,0r0,-1227r-426,1227r-175,0r-424,-1248r0,1248r-187,0","w":1706},"N":{"d":"156,0r0,-1466r199,0r770,1151r0,-1151r186,0r0,1466r-199,0r-770,-1152r0,1152r-186,0","w":1479},"O":{"d":"800,25v-432,0,-691,-312,-701,-739v-10,-457,272,-778,702,-778v440,0,700,311,700,761v0,448,-266,756,-701,756xm1301,-732v-5,-346,-170,-593,-499,-593v-137,0,-255,47,-354,141v-99,94,-149,252,-149,473v0,327,198,570,500,570v314,0,507,-246,502,-591","w":1593},"P":{"d":"158,0r0,-1466r553,0v282,-4,433,45,521,224v85,172,46,390,-74,516v-81,85,-223,130,-430,130r-376,0r0,596r-194,0xm731,-769v224,1,341,-72,346,-267v3,-123,-70,-223,-169,-244v-130,-28,-390,-9,-556,-13r0,524r379,0","w":1366,"k":{"A":152,".":264,",":264," ":37}},"Q":{"d":"1490,-734v0,258,-82,444,-221,577v90,62,173,107,249,136r-57,135v-105,-38,-210,-98,-315,-180v-109,61,-229,91,-360,91v-436,0,-698,-313,-698,-758v0,-446,259,-759,702,-759v439,0,700,310,700,758xm288,-733v0,350,186,588,503,592v69,0,135,-13,196,-39v-61,-39,-125,-67,-192,-84r47,-141v112,31,204,78,277,140v114,-104,171,-260,171,-469v0,-345,-171,-591,-499,-591v-317,0,-503,235,-503,592","w":1593},"R":{"d":"1333,-1066v0,241,-167,370,-413,399v140,66,197,141,278,268r255,399r-244,0r-194,-305v-89,-134,-139,-229,-239,-300v-59,-41,-91,-47,-196,-46r-225,0r0,651r-194,0r0,-1466r650,0v249,2,369,33,461,179v42,66,61,140,61,221xm1133,-1066v0,-161,-124,-238,-314,-238r-464,0r0,485r417,0v218,5,361,-60,361,-247","w":1479,"k":{"Y":37,"W":37,"V":37,"T":37}},"S":{"d":"1259,-414v0,283,-242,438,-542,439v-263,1,-441,-76,-545,-233v-51,-78,-77,-165,-80,-263r183,-16v20,231,188,338,433,338v193,0,364,-71,364,-249v0,-117,-71,-166,-172,-207v-76,-31,-474,-121,-544,-163v-117,-70,-208,-159,-208,-319v0,-269,232,-404,516,-404v315,0,533,145,551,438r-186,14v-22,-191,-138,-282,-357,-281v-117,0,-201,23,-256,64v-94,71,-104,202,-24,286v61,64,535,156,617,198v144,75,250,170,250,358","w":1366},"T":{"d":"531,0r0,-1293r-483,0r0,-173r1162,0r0,173r-485,0r0,1293r-194,0","w":1251,"k":{"y":113,"w":113,"u":76,"s":227,"r":76,"o":227,"i":76,"e":227,"c":227,"a":227,"O":37,"A":152,";":227,":":227,".":227,"-":113,",":227," ":37}},"U":{"d":"724,-150v317,0,396,-126,396,-470r0,-846r194,0r0,847v-3,294,-51,449,-230,563v-87,54,-202,81,-343,81v-417,0,-580,-207,-580,-644r0,-847r194,0r0,846v2,232,24,341,157,421v57,34,129,49,212,49","w":1479},"V":{"d":"577,0r-568,-1466r210,0r381,1065v31,85,56,165,77,240v23,-80,49,-160,79,-240r396,-1065r198,0r-574,1466r-199,0","w":1366,"k":{"y":76,"u":76,"r":76,"o":113,"i":37,"e":113,"a":152,"A":152,";":76,":":76,".":188,"-":113,",":188}},"W":{"d":"414,0r-389,-1466r199,0r223,961v24,101,45,201,62,300v37,-157,59,-247,66,-271r279,-990r234,0r210,742v53,184,91,357,114,519v19,-93,44,-199,73,-319r230,-942r195,0r-402,1466r-187,0r-355,-1289v-15,67,-30,125,-43,172r-311,1117r-198,0","w":1933,"k":{"y":18,"u":37,"r":37,"o":37,"e":37,"a":76,"A":76,";":37,":":37,".":113,"-":37,",":113}},"X":{"d":"9,0r567,-764r-500,-702r231,0r266,376v55,78,95,138,118,180v122,-189,278,-374,411,-556r211,0r-515,691r555,775r-240,0r-369,-523v-21,-30,-42,-63,-64,-98v-143,229,-288,406,-438,621r-233,0","w":1366},"Y":{"d":"571,0r0,-621r-565,-845r236,0r289,442v53,83,103,165,149,248v44,-77,97,-163,160,-259r284,-431r226,0r-585,845r0,621r-194,0","w":1366,"k":{"v":113,"u":113,"q":188,"p":152,"o":188,"i":76,"e":188,"a":152,"A":152,";":133,":":113,".":264,"-":188,",":264," ":37}},"Z":{"d":"41,0r0,-180r751,-939v53,-67,104,-125,152,-174r-818,0r0,-173r1050,0r0,173r-823,1017r-89,103r936,0r0,173r-1159,0","w":1251},"[":{"d":"139,407r0,-1873r397,0r0,149r-217,0r0,1575r217,0r0,149r-397,0","w":569},"\\":{"d":"425,25r-425,-1516r145,0r424,1516r-144,0","w":569},"]":{"d":"436,407r-397,0r0,-149r217,0r0,-1575r-217,0r0,-149r397,0r0,1873","w":569},"^":{"d":"239,-690r-185,0r353,-801r145,0r355,801r-181,0r-247,-597","w":961},"_":{"d":"-31,407r0,-130r1193,0r0,130r-1193,0"},"`":{"d":"465,-1194r-145,0r-231,-280r241,0","w":682},"a":{"d":"995,-445v6,270,-11,308,57,445r-188,0v-19,-37,-31,-81,-36,-131v-115,96,-212,150,-391,155v-213,5,-363,-111,-363,-304v0,-172,117,-269,258,-305v119,-31,406,-52,481,-89v18,-197,-77,-263,-255,-263v-179,0,-237,55,-277,202r-176,-24v41,-230,210,-327,479,-327v221,0,367,58,402,235v17,88,7,287,9,406xm291,-370v-76,130,31,253,189,253v143,0,256,-71,304,-170v24,-50,31,-154,29,-246v-75,43,-348,64,-451,104v-31,12,-56,33,-71,59"},"b":{"d":"1055,-547v9,323,-178,571,-459,571v-125,0,-224,-52,-295,-157r0,133r-167,0r0,-1466r180,0r0,523v76,-95,173,-143,291,-143v304,0,441,229,450,539xm589,-938v-184,0,-290,178,-290,399v0,127,17,219,52,276v57,93,133,139,230,139v187,0,290,-179,290,-408v0,-139,-28,-241,-83,-307v-55,-66,-121,-99,-199,-99"},"c":{"d":"561,-124v161,0,247,-105,267,-265r177,23v-32,227,-196,390,-442,390v-307,0,-483,-221,-483,-551v0,-335,165,-555,484,-559v238,-3,386,130,424,336r-175,27v-28,-126,-104,-215,-242,-215v-210,0,-306,160,-306,406v0,248,88,408,296,408","w":1024},"d":{"d":"519,-1086v134,-2,235,65,293,146r0,-526r179,0r0,1466r-167,0r0,-134v-100,176,-354,204,-530,88v-137,-90,-224,-262,-224,-484v1,-313,147,-551,449,-556xm536,-937v-194,0,-281,169,-281,407v0,136,29,238,86,305v57,67,125,101,203,101v186,0,283,-165,283,-391v0,-145,-28,-252,-84,-320v-56,-68,-125,-102,-207,-102"},"e":{"d":"582,-124v156,0,233,-86,280,-218r186,23v-55,208,-211,343,-467,343v-319,1,-506,-215,-506,-546v0,-333,186,-564,496,-564v316,0,506,247,482,601r-792,0v7,209,124,361,321,361xm864,-633v-10,-189,-122,-302,-291,-305v-172,-3,-295,133,-302,305r593,0"},"f":{"d":"507,-1326v-117,2,-149,43,-150,166r0,98r207,0r0,140r-207,0r0,922r-179,0r0,-922r-159,0r0,-140r159,0v0,-90,-3,-219,19,-272v40,-99,127,-159,275,-157v51,0,107,6,168,18r-27,157v-37,-7,-73,-10,-106,-10","w":569,"k":{"f":37}},"g":{"d":"66,-537v4,-308,152,-549,460,-549v125,0,229,51,310,152r0,-128r166,0r0,918v-2,301,-39,414,-210,515v-152,90,-446,77,-577,-25v-76,-59,-116,-143,-113,-258r175,26v16,124,109,166,244,168v163,2,250,-67,285,-190v9,-37,14,-114,13,-231v-79,93,-177,139,-294,139v-291,0,-463,-252,-459,-537xm539,-937v-186,0,-288,166,-288,387v0,240,92,401,291,401v195,0,292,-161,292,-395v0,-226,-106,-393,-295,-393"},"h":{"d":"596,-931v-191,0,-281,127,-281,350r0,581r-180,0r0,-1466r180,0r0,526v84,-97,190,-146,318,-146v253,0,367,130,367,413r0,673r-180,0r0,-673v1,-168,-69,-258,-224,-258"},"i":{"d":"136,-1259r0,-207r180,0r0,207r-180,0xm136,0r0,-1062r180,0r0,1062r-180,0","w":455},"j":{"d":"134,-1257r0,-209r180,0r0,209r-180,0xm25,273v109,0,109,-67,109,-219r0,-1116r180,0r0,1120v0,131,-20,220,-51,273v-60,101,-221,120,-357,81r34,-153v36,9,64,14,85,14","w":455},"k":{"d":"136,0r0,-1466r180,0r0,836r426,-432r233,0r-406,394r447,668r-222,0r-351,-543r-127,122r0,421r-180,0","w":1024},"l":{"d":"131,0r0,-1466r180,0r0,1466r-180,0","w":455},"m":{"d":"766,-690v-1,-150,-45,-240,-188,-240v-198,0,-263,145,-263,379r0,551r-180,0r0,-1062r161,0r0,149v61,-96,172,-173,322,-173v158,-1,259,70,300,186v84,-124,193,-186,328,-186v220,0,328,125,328,357r0,729r-179,0r0,-669v-2,-131,-9,-184,-81,-232v-30,-20,-67,-29,-108,-29v-169,0,-260,118,-260,313r0,617r-180,0r0,-690","w":1706},"n":{"d":"597,-930v-188,0,-282,115,-282,350r0,580r-180,0r0,-1062r162,0r0,151v100,-163,316,-220,515,-141v102,41,151,112,176,224v7,33,10,92,10,175r0,653r-180,0r0,-646v7,-189,-58,-284,-221,-284"},"o":{"d":"566,24v-313,-1,-498,-220,-498,-555v0,-337,186,-552,498,-555v302,-3,497,222,497,540v0,266,-77,412,-241,505v-78,44,-163,65,-256,65xm566,-937v-205,0,-313,167,-313,406v0,240,107,407,313,407v206,0,312,-170,312,-413v0,-232,-111,-400,-312,-400"},"p":{"d":"594,24v-126,4,-222,-62,-279,-134r0,517r-180,0r0,-1469r164,0r0,138v72,-98,152,-162,308,-162v301,0,448,240,450,547v2,317,-166,554,-463,563xm590,-945v-184,0,-292,191,-292,420v0,137,28,238,83,303v55,65,122,98,201,98v194,0,291,-177,291,-416v0,-135,-27,-237,-83,-304v-56,-67,-123,-101,-200,-101"},"q":{"d":"72,-541v6,-309,152,-545,448,-545v131,0,235,55,310,166r0,-142r162,0r0,1469r-180,0r0,-520v-50,73,-159,138,-278,137v-276,-3,-468,-252,-462,-565xm537,-944v-190,0,-280,174,-280,410v0,137,29,240,86,308v57,68,126,102,206,102v183,0,281,-169,281,-394v0,-141,-30,-248,-88,-319v-58,-71,-126,-107,-205,-107"},"r":{"d":"516,-900v-165,0,-203,175,-203,344r0,556r-180,0r0,-1062r162,0r0,161v69,-116,99,-185,230,-185v61,0,122,19,185,58r-62,167v-44,-26,-88,-39,-132,-39","w":682,"k":{".":113,",":113}},"s":{"d":"945,-312v0,220,-192,335,-428,336v-274,1,-411,-113,-454,-341r178,-28v20,142,111,221,275,221v139,0,244,-58,244,-169v0,-41,-17,-73,-53,-96v-66,-42,-410,-111,-459,-147v-90,-41,-155,-125,-155,-244v0,-211,169,-306,391,-306v237,0,395,83,421,298r-176,24v-17,-113,-97,-174,-232,-174v-133,0,-230,38,-230,137v0,59,40,90,91,111v18,7,71,22,159,46v127,34,217,62,267,84v94,41,161,118,161,248","w":1024},"t":{"d":"347,-301v-2,111,11,147,102,147v20,0,46,-2,79,-7r26,159v-154,37,-322,13,-364,-96v-13,-34,-22,-105,-22,-213r0,-611r-132,0r0,-140r132,0r0,-263r179,-108r0,371r181,0r0,140r-181,0r0,621","w":569},"u":{"d":"831,0r0,-156v-109,167,-313,230,-513,144v-150,-64,-187,-169,-187,-392r0,-658r180,0r0,589v1,177,-1,233,83,301v74,60,204,52,288,0v102,-63,130,-148,130,-321r0,-569r180,0r0,1062r-161,0"},"v":{"d":"430,0r-404,-1062r190,0r228,636v25,69,47,140,68,214v16,-56,38,-123,67,-202r236,-648r185,0r-402,1062r-168,0","w":1024,"k":{".":152,",":152}},"w":{"d":"331,0r-325,-1062r186,0r232,841v3,-11,19,-85,55,-219r169,-622r185,0r212,819r243,-819r175,0r-332,1062r-187,0r-169,-636r-41,-181r-215,817r-188,0","w":1479,"k":{".":113,",":113}},"x":{"d":"15,0r388,-552r-359,-510r225,0r163,249v31,47,55,87,74,119r260,-368r215,0r-367,500r395,562r-221,0r-276,-419r-279,419r-218,0","w":1024},"y":{"d":"127,409r-20,-169v109,34,217,11,258,-60v11,-18,49,-117,71,-178r-403,-1064r194,0r221,615v29,78,54,160,77,246v82,-303,202,-574,301,-861r180,0r-404,1080v-43,117,-79,196,-101,241v-64,132,-198,211,-374,150","w":1024,"k":{".":152,",":152}},"z":{"d":"40,0r0,-146r676,-776v-77,4,-144,6,-203,6r-433,0r0,-146r868,0r0,119r-575,674r-111,123v236,-17,472,-6,718,-9r0,155r-940,0","w":1024},"{":{"d":"224,-530v166,77,208,186,209,450v0,130,1,207,4,232v10,111,69,124,199,122r0,157v-218,13,-325,-50,-358,-221v-16,-84,-10,-430,-31,-508v-23,-88,-85,-149,-190,-151r0,-163v105,-2,168,-61,190,-150v33,-136,0,-486,57,-591v60,-109,150,-147,332,-138r0,157v-166,-1,-203,27,-203,205v0,175,-4,285,-11,331v-27,151,-76,207,-198,268","w":684},"|":{"d":"188,431r0,-1922r157,0r0,1922r-157,0","w":532},"}":{"d":"459,-530v-169,-88,-209,-178,-209,-451v0,-130,-3,-208,-5,-233v-10,-110,-70,-122,-198,-120r0,-157v218,-14,326,50,359,221v16,84,9,431,30,508v24,88,85,148,190,150r0,163v-105,2,-168,63,-190,151v-33,135,2,485,-56,590v-60,109,-151,148,-333,139r0,-157v166,1,203,-27,203,-206v0,-167,3,-272,9,-317v22,-148,81,-230,200,-281","w":684},"~":{"d":"348,-693v-130,0,-168,53,-261,136r0,-205v94,-108,237,-140,404,-102v83,19,244,116,361,116v105,0,200,-73,258,-137r0,212v-76,70,-147,108,-277,114v-164,8,-329,-134,-485,-134","w":1196}}});